FANN_FLO_2.1
num_layers=3
learning_rate=0.700000
connection_rate=1.000000
network_type=0
learning_momentum=0.000000
training_algorithm=2
train_error_function=1
train_stop_function=0
cascade_output_change_fraction=0.010000
quickprop_decay=-0.000100
quickprop_mu=1.750000
rprop_increase_factor=1.200000
rprop_decrease_factor=0.500000
rprop_delta_min=0.000000
rprop_delta_max=50.000000
rprop_delta_zero=0.100000
cascade_output_stagnation_epochs=12
cascade_candidate_change_fraction=0.010000
cascade_candidate_stagnation_epochs=12
cascade_max_out_epochs=150
cascade_max_cand_epochs=150
cascade_num_candidate_groups=2
bit_fail_limit=3.49999994039535520000e-001
cascade_candidate_limit=1.00000000000000000000e+003
cascade_weight_multiplier=4.00000005960464480000e-001
cascade_activation_functions_count=10
cascade_activation_functions=3 5 7 8 10 11 14 15 16 17 
cascade_activation_steepnesses_count=4
cascade_activation_steepnesses=2.50000000000000000000e-001 5.00000000000000000000e-001 7.50000000000000000000e-001 1.00000000000000000000e+000 
layer_sizes=22 44 2 
scale_included=0
neurons (num_inputs, activation_function, activation_steepness)=(0, 0, 0.00000000000000000000e+000) (0, 0, 0.00000000000000000000e+000) (0, 0, 0.00000000000000000000e+000) (0, 0, 0.00000000000000000000e+000) (0, 0, 0.00000000000000000000e+000) (0, 0, 0.00000000000000000000e+000) (0, 0, 0.00000000000000000000e+000) (0, 0, 0.00000000000000000000e+000) (0, 0, 0.00000000000000000000e+000) (0, 0, 0.00000000000000000000e+000) (0, 0, 0.00000000000000000000e+000) (0, 0, 0.00000000000000000000e+000) (0, 0, 0.00000000000000000000e+000) (0, 0, 0.00000000000000000000e+000) (0, 0, 0.00000000000000000000e+000) (0, 0, 0.00000000000000000000e+000) (0, 0, 0.00000000000000000000e+000) (0, 0, 0.00000000000000000000e+000) (0, 0, 0.00000000000000000000e+000) (0, 0, 0.00000000000000000000e+000) (0, 0, 0.00000000000000000000e+000) (0, 0, 0.00000000000000000000e+000) (22, 3, 5.00000000000000000000e-001) (22, 3, 5.00000000000000000000e-001) (22, 3, 5.00000000000000000000e-001) (22, 3, 5.00000000000000000000e-001) (22, 3, 5.00000000000000000000e-001) (22, 3, 5.00000000000000000000e-001) (22, 3, 5.00000000000000000000e-001) (22, 3, 5.00000000000000000000e-001) (22, 3, 5.00000000000000000000e-001) (22, 3, 5.00000000000000000000e-001) (22, 3, 5.00000000000000000000e-001) (22, 3, 5.00000000000000000000e-001) (22, 3, 5.00000000000000000000e-001) (22, 3, 5.00000000000000000000e-001) (22, 3, 5.00000000000000000000e-001) (22, 3, 5.00000000000000000000e-001) (22, 3, 5.00000000000000000000e-001) (22, 3, 5.00000000000000000000e-001) (22, 3, 5.00000000000000000000e-001) (22, 3, 5.00000000000000000000e-001) (22, 3, 5.00000000000000000000e-001) (22, 3, 5.00000000000000000000e-001) (22, 3, 5.00000000000000000000e-001) (22, 3, 5.00000000000000000000e-001) (22, 3, 5.00000000000000000000e-001) (22, 3, 5.00000000000000000000e-001) (22, 3, 5.00000000000000000000e-001) (22, 3, 5.00000000000000000000e-001) (22, 3, 5.00000000000000000000e-001) (22, 3, 5.00000000000000000000e-001) (22, 3, 5.00000000000000000000e-001) (22, 3, 5.00000000000000000000e-001) (22, 3, 5.00000000000000000000e-001) (22, 3, 5.00000000000000000000e-001) (22, 3, 5.00000000000000000000e-001) (22, 3, 5.00000000000000000000e-001) (22, 3, 5.00000000000000000000e-001) (22, 3, 5.00000000000000000000e-001) (22, 3, 5.00000000000000000000e-001) (22, 3, 5.00000000000000000000e-001) (22, 3, 5.00000000000000000000e-001) (22, 3, 5.00000000000000000000e-001) (22, 3, 5.00000000000000000000e-001) (0, 3, 0.00000000000000000000e+000) (44, 3, 5.00000000000000000000e-001) (0, 3, 0.00000000000000000000e+000) 
connections (connected_to_neuron, weight)=(0, 2.38618602752685550000e+001) (1, -4.11642551422119140000e+000) (2, -3.67282836914062500000e+002) (3, -5.44523376464843750000e+002) (4, -3.28197360038757320000e+000) (5, -1.04992713928222660000e+002) (6, 2.90453582763671870000e+002) (7, -1.04996376037597660000e+002) (8, 5.57184936523437500000e+002) (9, -6.79729163646698000000e-001) (10, -1.51551592350006100000e+000) (11, 6.79705715179443360000e+000) (12, -4.21090469360351560000e+001) (13, -2.25960098266601560000e+002) (14, -1.50000000000000000000e+003) (15, -1.50000000000000000000e+003) (16, -1.59034121036529540000e+000) (17, 1.35291266441345210000e+000) (18, 6.07520627975463870000e+000) (19, 3.42216324806213380000e+000) (20, -9.33609497070312500000e+002) (21, -1.47044026851654050000e+000) (0, -9.11491155624389650000e-001) (1, 2.45087459683418270000e-001) (2, -4.94727087020874020000e+000) (3, -2.08035737276077270000e-001) (4, -1.50000000000000000000e+003) (5, 1.46921977996826170000e+001) (6, -2.30317878723144530000e+000) (7, 1.47202739715576170000e+001) (8, 1.25481069087982180000e+000) (9, -1.64157247543334960000e+000) (10, -1.48581516742706300000e+000) (11, -1.99280953407287600000e+000) (12, -6.01693928241729740000e-001) (13, -4.53013610839843750000e+000) (14, -8.75742912292480470000e+000) (15, 6.56467258930206300000e-001) (16, 4.24235224723815920000e-001) (17, -9.51789915561676030000e-001) (18, 2.86793351173400880000e-001) (19, -7.52442598342895510000e-001) (20, -9.99606704711914060000e+000) (21, -9.39179718494415280000e-001) (0, 3.53012886047363280000e+001) (1, 9.07277345657348630000e-001) (2, 3.96145629882812500000e+000) (3, 3.20130038261413570000e+000) (4, -1.32604036331176760000e+001) (5, 4.42425880432128910000e+001) (6, 2.15714054107666020000e+001) (7, 4.43521652221679690000e+001) (8, -4.28285121917724610000e-001) (9, -4.88207769393920900000e+000) (10, -4.81070709228515620000e+000) (11, -1.86673247814178470000e+000) (12, 2.50990724563598630000e+000) (13, 8.13423728942871090000e+000) (14, -1.48255720138549800000e+001) (15, 4.08161354064941410000e+000) (16, 5.82216596603393550000e+000) (17, 1.80235576629638670000e+001) (18, -1.82157058715820310000e+001) (19, 1.06014013290405270000e+001) (20, 1.55715436935424800000e+001) (21, 3.88140082359313960000e-001) (0, 2.78842029571533200000e+001) (1, 6.35263347625732420000e+000) (2, -1.15082855224609380000e+001) (3, -3.28804469108581540000e+000) (4, -3.20393142700195310000e+001) (5, -9.96555847167968750000e+002) (6, 1.49997631835937500000e+003) (7, -9.96477050781250000000e+002) (8, 1.05889406204223630000e+001) (9, -2.81613558530807500000e-001) (10, 3.93433690071105960000e-001) (11, -4.47468012571334840000e-001) (12, -1.83616018295288090000e+000) (13, 1.55013322830200200000e+000) (14, -4.58664608001708980000e+000) (15, -2.49968934059143070000e+000) (16, -4.57512766122817990000e-001) (17, 7.78154373168945310000e-001) (18, -6.17809474468231200000e-001) (19, 5.57821631431579590000e-001) (20, 9.81321752071380620000e-001) (21, 3.85208058357238770000e+000) (0, -1.49991552734375000000e+003) (1, -6.17387390136718750000e+000) (2, 2.50606670379638670000e+001) (3, -7.76185631752014160000e-001) (4, -2.13803267478942870000e+000) (5, -1.94070358276367190000e+001) (6, 8.50518512725830080000e+000) (7, -1.93896560668945310000e+001) (8, 1.34021902084350590000e+000) (9, 1.82449400424957280000e+000) (10, -4.35786819458007810000e+000) (11, -1.43371462821960450000e+000) (12, 3.02818208932876590000e-001) (13, 9.86502647399902340000e+000) (14, -1.97216123342514040000e-001) (15, 3.58272433280944820000e+000) (16, 1.39705014228820800000e+000) (17, -1.24021098017692570000e-001) (18, -9.59771797060966490000e-002) (19, 4.42879486083984370000e+000) (20, -1.13989315032958980000e+001) (21, -6.01986455917358400000e+000) (0, 9.18484973907470700000e+000) (1, -4.24503040313720700000e+000) (2, -9.77820663452148440000e+001) (3, -4.20408477783203120000e+002) (4, 4.96160888671875000000e+000) (5, -6.75430526733398440000e+001) (6, 2.76519500732421870000e+002) (7, -6.75629119873046880000e+001) (8, 3.96674957275390630000e+001) (9, -1.03834021091461180000e+000) (10, -3.91024565696716310000e+000) (11, 2.21254138946533200000e+001) (12, -3.94072570800781250000e+001) (13, -1.21931835937500000000e+003) (14, 8.84065723419189450000e+000) (15, -1.01916856765747070000e+001) (16, -4.70572423934936520000e+000) (17, -6.70932149887084960000e+000) (18, 3.08210697174072270000e+001) (19, -1.55091733932495120000e+001) (20, -1.10617881774902340000e+002) (21, -3.99036788940429690000e+000) (0, 4.04649429321289060000e+001) (1, -1.43354721069335940000e+001) (2, -4.40545806884765630000e+001) (3, 3.31476712226867680000e+000) (4, -5.65990781784057620000e+000) (5, 1.46950912475585940000e+001) (6, -2.15210208892822270000e+001) (7, 1.45520009994506840000e+001) (8, 1.01732838153839110000e+000) (9, -3.56700301170349120000e-001) (10, -3.56111973524093630000e-001) (11, 6.24331459403038020000e-002) (12, -9.34310033917427060000e-002) (13, -8.72373938560485840000e-001) (14, 2.60863709449768070000e+000) (15, 1.23120856285095210000e+000) (16, 6.12756609916687010000e-001) (17, 1.51519775390625000000e+000) (18, 4.64422643184661870000e-001) (19, -8.21553528308868410000e-001) (20, 2.68673300743103030000e-001) (21, -1.59377050399780270000e+000) (0, -2.99311876296997070000e+000) (1, -1.00296223163604740000e+000) (2, -5.11269092559814450000e+000) (3, -7.75730967521667480000e-001) (4, 1.58337628841400150000e+000) (5, 1.09266137695312500000e+003) (6, -1.49914160156250000000e+003) (7, 1.09261291503906250000e+003) (8, -1.08791291713714600000e+000) (9, 6.86857402324676510000e-001) (10, -1.36132247280329470000e-003) (11, -1.97838485240936280000e+000) (12, -3.89755606651306150000e-001) (13, 1.76829659938812260000e+000) (14, -1.59609537124633790000e+001) (15, -4.37446951866149900000e-001) (16, 4.01419401168823240000e+000) (17, 2.88257300853729250000e-001) (18, -7.71228313446044920000e-001) (19, -6.82841300964355470000e-001) (20, -1.07495927810668950000e+000) (21, 1.53338894248008730000e-001) (0, 3.18980407714843750000e+000) (1, -7.87409591674804690000e+000) (2, 9.43727397918701170000e+000) (3, -7.51485967636108400000e+000) (4, -1.50000000000000000000e+003) (5, 3.74757690429687500000e+001) (6, 5.38715887069702150000e+000) (7, 3.73528480529785160000e+001) (8, -9.60073375701904300000e+000) (9, 7.19860506057739260000e+000) (10, 6.22051811218261720000e+000) (11, -1.24528646469116210000e+001) (12, 1.21885614395141600000e+001) (13, -3.29063653945922850000e+000) (14, -6.46269454956054690000e+001) (15, -3.60585236549377440000e+000) (16, 1.24794232845306400000e+000) (17, 1.42174518108367920000e+000) (18, 1.27306234836578370000e+000) (19, 3.96969771385192870000e+000) (20, 6.29847717285156250000e+000) (21, -3.50796163082122800000e-001) (0, -1.21341633796691890000e+000) (1, -8.35590243339538570000e-001) (2, -4.29804277420043950000e+000) (3, 3.28734827041625980000e+000) (4, -2.54191231727600100000e+000) (5, 2.50262761116027830000e+000) (6, -6.24692916870117190000e+000) (7, 2.45956707000732420000e+000) (8, 4.79026496410369870000e-001) (9, 1.08943629264831540000e+000) (10, 8.80773842334747310000e-001) (11, 3.21517974138259890000e-001) (12, -1.57057523727416990000e-001) (13, 5.20773828029632570000e-001) (14, -2.59130096435546870000e+000) (15, 2.85659408569335940000e+000) (16, -1.09483451843261720000e+001) (17, -4.01672706604003910000e+001) (18, -1.11081161499023440000e+001) (19, 7.63982248306274410000e+000) (20, 9.60699367523193360000e+000) (21, -1.67472612857818600000e+000) (0, -2.69603443145751950000e+000) (1, 1.33992385864257810000e+000) (2, -4.39198493957519530000e+000) (3, 1.60415899753570560000e+000) (4, -1.11178770065307620000e+001) (5, -1.92654151916503910000e+001) (6, 2.37546806335449220000e+001) (7, -1.93762283325195310000e+001) (8, -9.38526725769042970000e+000) (9, 4.43741273880004880000e+000) (10, 2.92990952730178830000e-001) (11, -1.86065769195556640000e+000) (12, 8.57327556610107420000e+000) (13, -1.55555272102355960000e+000) (14, -1.63049113750457760000e+000) (15, -1.84996490478515630000e+001) (16, -5.18146419525146480000e+000) (17, -7.14419555664062500000e+000) (18, 1.36343348026275630000e+000) (19, -5.37758445739746090000e+000) (20, 1.64335193634033200000e+001) (21, -6.48261368274688720000e-001) (0, -1.48122167587280270000e+001) (1, 2.21917295455932620000e+000) (2, 5.18074321746826170000e+000) (3, 2.22543716430664060000e+000) (4, -2.24080705642700200000e+000) (5, 7.98845863342285160000e+000) (6, -6.59472703933715820000e+000) (7, 7.95761060714721680000e+000) (8, 1.09195911884307860000e+000) (9, 4.16313886642456050000e-001) (10, -7.48614192008972170000e-001) (11, 5.52236735820770260000e-001) (12, 8.28385114669799800000e-001) (13, -1.64081013202667240000e+000) (14, -7.26023244857788090000e+000) (15, 2.13855236768722530000e-001) (16, 1.68553853034973140000e+000) (17, 6.13931894302368160000e-001) (18, -6.84160590171813960000e-001) (19, -2.79032915830612180000e-001) (20, 2.67637133598327640000e+000) (21, 2.62698912620544430000e+000) (0, -3.20985406637191770000e-001) (1, -2.42762374877929690000e+000) (2, 2.18392476439476010000e-001) (3, 4.66213989257812500000e+001) (4, -8.59630048274993900000e-001) (5, 4.93496131896972660000e+001) (6, 4.01765346527099610000e+000) (7, 4.92327079772949220000e+001) (8, -2.44809567928314210000e-001) (9, -5.11976897716522220000e-001) (10, 5.91511726379394530000e-001) (11, 8.72751653194427490000e-001) (12, -3.79131227731704710000e-001) (13, 2.27085977792739870000e-001) (14, -6.17605268955230710000e-001) (15, -6.80392682552337650000e-002) (16, -4.92267936468124390000e-001) (17, -2.10868284106254580000e-001) (18, 8.62093448638916020000e-001) (19, 6.67669892311096190000e-001) (20, -2.56986761093139650000e+000) (21, -1.96690826416015620000e+001) (0, -6.69014282226562500000e+001) (1, 3.43345856666564940000e+000) (2, -1.09200410842895510000e+001) (3, -1.00149445235729220000e-001) (4, 2.36380171775817870000e+000) (5, -5.59784460067749020000e+000) (6, 5.98067779541015630000e+001) (7, -5.62220907211303710000e+000) (8, 8.03564906120300290000e-001) (9, -3.91843348741531370000e-001) (10, 4.59243774414062500000e-001) (11, 1.30768787860870360000e+000) (12, -1.01270236074924470000e-001) (13, -4.39601019024848940000e-002) (14, 1.58730971813201900000e+000) (15, 1.92838877439498900000e-001) (16, 7.09978675842285160000e+000) (17, -1.00845590233802800000e-001) (18, -1.25455409288406370000e-001) (19, 5.62536239624023440000e-001) (20, -8.42413842678070070000e-001) (21, -1.02432107925415040000e+000) (0, -5.55934381484985350000e+000) (1, -3.59769797325134280000e+000) (2, -7.83083587884902950000e-002) (3, -6.04131221771240230000e-001) (4, 3.63009872436523440000e+001) (5, 1.02785131835937500000e+003) (6, -8.09279441833496090000e+000) (7, 1.02780993652343750000e+003) (8, -2.02146363258361820000e+000) (9, 2.72160172462463380000e-001) (10, -1.37909471988677980000e+000) (11, -3.23926866054534910000e-001) (12, -1.93802714347839360000e-001) (13, -6.91542148590087890000e-001) (14, -1.49831982421875000000e+003) (15, -9.45401132106781010000e-001) (16, -1.96897470951080320000e+000) (17, -1.43649351596832280000e+000) (18, 7.98331499099731450000e-001) (19, 2.14494562149047850000e+000) (20, 8.73380780220031740000e-001) (21, -3.42685604095458980000e+000) (0, 3.60455656051635740000e+000) (1, -4.48025137186050420000e-001) (2, 9.32167434692382810000e+000) (3, 3.51624822616577150000e+000) (4, -5.20447206497192380000e+000) (5, 3.40750007629394530000e+001) (6, -1.11946449279785160000e+001) (7, 3.41490821838378910000e+001) (8, -8.15864264965057370000e-001) (9, 1.61448383331298830000e+000) (10, 1.73690974712371830000e-001) (11, -3.54776889085769650000e-001) (12, 7.50659525394439700000e-001) (13, 6.67800998687744140000e+000) (14, 1.23806018829345700000e+001) (15, -1.17499637603759770000e+001) (16, 2.85815894603729250000e-001) (17, 7.04887270927429200000e-001) (18, 6.40546306967735290000e-002) (19, 1.33307743072509770000e+000) (20, 1.43981399536132810000e+001) (21, -1.65041089057922360000e+000) (0, -2.71016955375671390000e-001) (1, 9.00019407272338870000e-001) (2, -1.38580913543701170000e+001) (3, 9.99203085899353030000e-001) (4, 1.71383166313171390000e+000) (5, 1.48761024475097660000e+001) (6, 3.21123390197753910000e+001) (7, 1.48761024475097660000e+001) (8, 6.51675939559936520000e-001) (9, 3.81222486495971680000e+000) (10, -2.88177299499511720000e+000) (11, -6.36249399185180660000e+000) (12, -4.78298044204711910000e+000) (13, 4.19548797607421870000e+000) (14, 1.75940780639648440000e+001) (15, -2.35924765467643740000e-001) (16, 1.06721866130828860000e+000) (17, 7.66400766372680660000e+000) (18, 1.10489928722381590000e+000) (19, 5.87398350238800050000e-001) (20, -1.69470220804214480000e-001) (21, 7.77319192886352540000e-001) (0, 1.07874555587768550000e+001) (1, -4.69162750244140620000e+000) (2, -8.50957260131835940000e+001) (3, -4.45550872802734370000e+002) (4, 1.93573391437530520000e+000) (5, -1.32930488586425780000e+001) (6, -1.48768682479858400000e+001) (7, -1.32840232849121090000e+001) (8, 7.92278242111206050000e+000) (9, -1.43994897603988650000e-001) (10, -2.84696555137634280000e+000) (11, -5.71556234359741210000e+000) (12, -1.52878818511962890000e+001) (13, -3.54642796516418460000e+000) (14, 6.92140245437622070000e+000) (15, -6.22295379638671880000e+001) (16, -2.14921569824218750000e+000) (17, -4.13995599746704100000e+000) (18, -1.46931365966796870000e+002) (19, 1.48083937168121340000e+000) (20, 4.35516357421875000000e+002) (21, -2.57035803794860840000e+000) (0, -5.41543769836425780000e+000) (1, -1.42309772968292240000e+000) (2, -2.51682925224304200000e+000) (3, -1.75284194946289060000e+000) (4, -6.94598019123077390000e-001) (5, 1.49028601074218750000e+003) (6, -7.30062805175781250000e+002) (7, 1.49028601074218750000e+003) (8, 2.65646606683731080000e-001) (9, -3.26500558853149410000e+000) (10, 7.26712644100189210000e-001) (11, -1.52062785625457760000e+000) (12, -2.68115901947021480000e+000) (13, 1.02733336389064790000e-001) (14, -1.34078295898437500000e+003) (15, -1.18209180831909180000e+001) (16, -5.74609518051147460000e-001) (17, 6.67059421539306640000e+000) (18, 1.70908141136169430000e+000) (19, 4.76287651062011720000e+000) (20, -3.15873813629150390000e+000) (21, 9.00689244270324710000e-001) (0, 8.20750772953033450000e-001) (1, 3.18856048583984370000e+000) (2, -1.76608705520629880000e+000) (3, -1.80143775939941410000e+001) (4, -6.90600275993347170000e-001) (5, 3.22559509277343750000e+001) (6, -1.89985966682434080000e+000) (7, 3.23549270629882810000e+001) (8, -1.80157199501991270000e-001) (9, 1.35433867573738100000e-001) (10, 5.21501302719116210000e-001) (11, -2.21712201833724980000e-001) (12, -1.24562077224254610000e-001) (13, -2.84859776496887210000e-001) (14, 5.24030804634094240000e-001) (15, -3.96101713180541990000e-001) (16, 1.53138768672943120000e+000) (17, 2.08972636610269550000e-002) (18, -1.88189655542373660000e-001) (19, -3.62850911915302280000e-002) (20, 6.24788105487823490000e-001) (21, 6.90337753295898440000e+000) (0, 4.69024610519409180000e+000) (1, -5.96213936805725100000e-001) (2, -2.08777666091918950000e+000) (3, -8.82572829723358150000e-002) (4, 2.44352078437805180000e+000) (5, -2.67543864250183110000e+000) (6, -4.20546627044677730000e+000) (7, -2.53067588806152340000e+000) (8, 2.65445971488952640000e+000) (9, -7.46205210685729980000e-001) (10, -8.34567666053771970000e-001) (11, 5.88929891586303710000e-001) (12, 6.52079045772552490000e-001) (13, -4.21570539474487300000e-001) (14, 1.06871175765991210000e+001) (15, 1.03206656873226170000e-001) (16, -1.27983912825584410000e-001) (17, 6.87497198581695560000e-001) (18, -3.40647602081298830000e+000) (19, 6.01457536220550540000e-001) (20, -1.95245504379272460000e+000) (21, -1.24323332309722900000e+000) (0, -7.32217311859130860000e-001) (1, 4.75799143314361570000e-001) (2, -6.63664722442626950000e+000) (3, 5.12930526733398440000e+001) (4, 1.59144282341003420000e+000) (5, 1.04116716384887700000e+001) (6, -7.36038970947265630000e+000) (7, 1.05159616470336910000e+001) (8, -3.59647512435913090000e+000) (9, -1.20937347412109370000e+000) (10, 4.00666904449462890000e+000) (11, 2.01746845245361330000e+000) (12, -1.03206181526184080000e+000) (13, 8.52548658847808840000e-001) (14, -1.30488700866699220000e+001) (15, -6.62931680679321290000e-001) (16, -2.55476498603820800000e+000) (17, 4.21122360229492190000e+000) (18, -4.22318840026855470000e+000) (19, 1.34611928462982180000e+000) (20, 1.01854696273803710000e+001) (21, -8.80733430385589600000e-001) (0, 8.40289402008056640000e+000) (1, -7.30935633182525630000e-001) (2, -3.09024333953857420000e+000) (3, 2.68446421623229980000e+000) (4, 1.80117595195770260000e+000) (5, 8.80797958374023440000e+000) (6, -3.42350602149963380000e+000) (7, 8.80797958374023440000e+000) (8, -1.32129561901092530000e+000) (9, 1.38558208942413330000e+000) (10, -5.43181896209716800000e-001) (11, -3.02512955665588380000e+000) (12, -5.10939788818359370000e+000) (13, 3.31780695915222170000e+000) (14, -1.85515136718750000000e+001) (15, -2.23287963867187500000e+000) (16, -6.35503530502319340000e+000) (17, 4.99121952056884770000e+000) (18, -1.44116568565368650000e+000) (19, -9.08917236328125000000e+000) (20, 7.57628011703491210000e+000) (21, -3.60804796218872070000e+000) (0, -2.14288272857666020000e+001) (1, 1.82253694534301760000e+000) (2, -5.09469985961914060000e+000) (3, -6.14194631576538090000e-001) (4, 2.55673336982727050000e+000) (5, -1.50000000000000000000e+003) (6, -3.18235836029052730000e+001) (7, -1.50000000000000000000e+003) (8, -3.20271658897399900000e+000) (9, 4.70968604087829590000e-001) (10, 7.33723461627960210000e-001) (11, 6.00615859031677250000e-001) (12, -2.21386104822158810000e-001) (13, -2.43646144866943360000e-001) (14, -2.86374616622924800000e+000) (15, 1.01867951452732090000e-001) (16, -4.32953059673309330000e-001) (17, 5.30173927545547490000e-002) (18, 7.71235227584838870000e-002) (19, 5.06568312644958500000e-001) (20, -2.58214688301086430000e+000) (21, 7.59413337707519530000e+000) (0, 3.23009324073791500000e+000) (1, 4.91036623716354370000e-001) (2, -1.06433665752410890000e+000) (3, -1.40246658325195310000e+001) (4, -3.86733360290527340000e+001) (5, 1.18585216999053960000e+000) (6, 4.43376197814941410000e+001) (7, 1.18776714801788330000e+000) (8, -2.88103938102722170000e-001) (9, 1.32258498668670650000e+000) (10, 7.65535473823547360000e-001) (11, -8.10364186763763430000e-001) (12, 7.63253629207611080000e-001) (13, -2.38009825348854060000e-001) (14, -1.19439339637756350000e+000) (15, -5.27754306793212890000e-001) (16, 8.53685736656188960000e-001) (17, -1.36983454227447510000e-001) (18, 6.89004719257354740000e-001) (19, 2.74570167064666750000e-001) (20, 3.94448518753051760000e-001) (21, 1.84552893042564390000e-001) (0, -9.23920035362243650000e-001) (1, 2.32654452323913570000e+000) (2, -2.00964794158935550000e+001) (3, 5.82198381423950200000e+000) (4, 8.14821910858154300000e+000) (5, -1.97801246643066410000e+001) (6, 1.77931129932403560000e+000) (7, -1.96783542633056640000e+001) (8, 2.23528757691383360000e-001) (9, 1.42439484596252440000e+000) (10, 5.79262077808380130000e-001) (11, -1.64736759662628170000e+000) (12, -4.46524858474731450000e+000) (13, 4.29416322708129880000e+000) (14, 5.19175338745117190000e+000) (15, 3.98946022987365720000e+000) (16, 1.56157732009887700000e+001) (17, 1.69547138214111330000e+001) (18, -1.10002336502075200000e+001) (19, 2.09298515319824220000e+000) (20, 3.86223983764648440000e+001) (21, 1.78425991535186770000e+000) (0, -1.56180753707885740000e+001) (1, 5.80598473548889160000e-001) (2, -4.98566436767578120000e+000) (3, 1.00088715553283690000e+000) (4, 4.36964929103851320000e-001) (5, -6.19770145416259770000e+000) (6, -7.44593811035156250000e+000) (7, -6.08934450149536130000e+000) (8, 1.69688534736633300000e+000) (9, -3.22541832923889160000e-001) (10, 2.12526655197143550000e+000) (11, 1.09730136394500730000e+000) (12, 1.61762678623199460000e+000) (13, -6.97322130203247070000e-001) (14, 1.50137865543365480000e+000) (15, 1.50028392672538760000e-001) (16, 1.77463376522064210000e+000) (17, 1.52897214889526370000e+000) (18, -7.32366859912872310000e-001) (19, -5.76542854309082030000e-001) (20, 1.04051840305328370000e+000) (21, 2.34854504466056820000e-001) (0, -3.50067305564880370000e+000) (1, -5.46988785266876220000e-001) (2, -4.20617580413818360000e+000) (3, 6.72944068908691410000e-001) (4, -2.82526931762695310000e+001) (5, 6.03113555908203130000e+001) (6, -1.59359884262084960000e+000) (7, 6.03134078979492190000e+001) (8, -6.23463332653045650000e-001) (9, -6.13873839378356930000e-001) (10, 1.52905672788620000000e-001) (11, 1.40638977289199830000e-001) (12, -6.89491748809814450000e-001) (13, -1.83084085583686830000e-001) (14, 3.92117953300476070000e+000) (15, 5.34745693206787110000e-001) (16, 1.37324440479278560000e+000) (17, -4.44864332675933840000e-001) (18, -2.69098639488220210000e-001) (19, 3.01399737596511840000e-001) (20, -2.48972713947296140000e-001) (21, -2.32611387968063350000e-001) (0, 9.26111638545989990000e-001) (1, -3.19299125671386720000e+000) (2, 7.37910866737365720000e-001) (3, 6.88568038940429690000e+001) (4, -5.49194002151489260000e+000) (5, -2.35016393661499020000e+000) (6, 7.65238881111145020000e-001) (7, -2.20452117919921870000e+000) (8, 1.71237885951995850000e+000) (9, -2.38729429244995120000e+000) (10, -1.17867672443389890000e+000) (11, 9.45930838584899900000e-001) (12, -4.51011747121810910000e-001) (13, -4.50933247804641720000e-001) (14, 3.79647278785705570000e+000) (15, -9.68044340610504150000e-001) (16, 8.42742681503295900000e-001) (17, -1.01211130619049070000e+000) (18, -2.96564131975173950000e-001) (19, -6.06300055980682370000e-001) (20, -3.30715394020080570000e+000) (21, -1.61507666110992430000e+000) (0, -4.06619596481323240000e+000) (1, -5.31526565551757810000e-001) (2, 2.55931377410888670000e+000) (3, 5.34819650650024410000e+000) (4, 4.76179361343383790000e+000) (5, -2.87837266921997070000e+000) (6, -5.98102688789367680000e-001) (7, -2.92463660240173340000e+000) (8, 2.69866180419921870000e+000) (9, -1.04094946384429930000e+000) (10, -3.81546854972839360000e+000) (11, -4.75144892930984500000e-001) (12, 1.31261765956878660000e+000) (13, 1.03210115432739260000e+000) (14, -6.89864444732666020000e+000) (15, 1.04591293334960940000e+001) (16, -1.61233806610107420000e+001) (17, -1.49999987792968750000e+003) (18, -8.09123039245605470000e+000) (19, -1.49999987792968750000e+003) (20, -5.43093252182006840000e+000) (21, -1.14376890659332280000e+000) (0, -3.99945676326751710000e-001) (1, -2.50309872627258300000e+000) (2, -1.70357894897460940000e+000) (3, -1.32668995857238770000e+000) (4, 2.00561389923095700000e+001) (5, -1.50000000000000000000e+003) (6, -2.23854184150695800000e+000) (7, -1.50000000000000000000e+003) (8, -1.18878471851348880000e+000) (9, 3.19776087999343870000e-001) (10, -1.03601706027984620000e+000) (11, 2.09484174847602840000e-001) (12, 3.59040617942810060000e-001) (13, -6.54282867908477780000e-001) (14, -5.11792678833007810000e+001) (15, -1.47550463676452640000e+000) (16, -1.91578817367553710000e+000) (17, -1.54175555706024170000e+000) (18, 8.49907338619232180000e-001) (19, 2.24740123748779300000e+000) (20, -1.04715621471405030000e+000) (21, -1.79150545597076420000e+000) (0, -9.93084814399480820000e-003) (1, 1.91927641630172730000e-001) (2, 3.66632914543151860000e+000) (3, 3.32135438919067380000e+000) (4, -9.25292491912841800000e+000) (5, 6.65671844482421880000e+001) (6, -1.55029659271240230000e+001) (7, 6.65671844482421880000e+001) (8, 7.55346918106079100000e+000) (9, 1.09936976432800290000e+000) (10, -1.68654823303222660000e+000) (11, 3.68733167648315430000e+000) (12, 1.25507652759552000000e+000) (13, 4.34150171279907230000e+000) (14, -3.04203586578369140000e+001) (15, 1.79759085178375240000e+000) (16, -5.52815628051757810000e+000) (17, 3.47958827018737790000e+000) (18, 1.03141803741455080000e+001) (19, 1.79229891300201420000e+000) (20, 1.10099382400512700000e+001) (21, -2.83767282962799070000e-001) (0, -8.44580459594726560000e+000) (1, 4.32866454124450680000e-001) (2, 1.23929003906250000000e+003) (3, 6.95220375061035160000e+000) (4, -5.30654430389404300000e+000) (5, -7.97714462280273440000e+001) (6, 5.52466278076171880000e+001) (7, -7.96884231567382810000e+001) (8, -2.10517864227294920000e+001) (9, -7.17604017257690430000e+000) (10, -4.09882217645645140000e-001) (11, -4.20979928970336910000e+000) (12, 5.78527021408081050000e+000) (13, 2.44596624374389650000e+000) (14, 7.18038320541381840000e+000) (15, 2.65670824050903320000e+000) (16, -2.00332045555114750000e+000) (17, 2.44185028076171880000e+001) (18, -9.81000328063964840000e+000) (19, 3.51425480842590330000e+000) (20, -5.17105407714843750000e+001) (21, -5.71979141235351560000e+000) (0, -2.73042368888854980000e+000) (1, -1.07565931975841520000e-001) (2, -1.91397941112518310000e+000) (3, -1.16244733333587650000e+000) (4, -9.11637008190155030000e-001) (5, 2.61909890174865720000e+000) (6, 4.27152442932128910000e+000) (7, 2.46221303939819340000e+000) (8, 1.89853608608245850000e-001) (9, 7.21787929534912110000e-001) (10, 1.52836039662361150000e-001) (11, 3.56295645236968990000e-001) (12, 4.40417796373367310000e-001) (13, 5.98148822784423830000e-001) (14, 7.52976417541503910000e+000) (15, 6.72056615352630620000e-001) (16, -4.50036287307739260000e-001) (17, 9.80767369270324710000e-001) (18, 3.44650059938430790000e-001) (19, -1.91572964191436770000e-001) (20, 6.99966013431549070000e-001) (21, -3.39057713747024540000e-001) (0, 2.22838416695594790000e-001) (1, -4.98114079236984250000e-001) (2, 1.79197704792022710000e+000) (3, -3.58306312561035160000e+000) (4, -2.43782830238342290000e+000) (5, 1.30950713157653810000e+000) (6, -4.21461105346679690000e-001) (7, 1.38974440097808840000e+000) (8, 1.73097515106201170000e+000) (9, -3.74051880836486820000e+000) (10, 2.34645080566406250000e+000) (11, 2.43066382408142090000e+000) (12, 3.13758301734924320000e+000) (13, 1.00368075072765350000e-001) (14, -7.82547771930694580000e-001) (15, -2.67603492736816410000e+000) (16, -3.45459032058715820000e+000) (17, 1.01020832061767580000e+001) (18, -3.23597145080566410000e+000) (19, -1.49999987792968750000e+003) (20, -1.62297992706298830000e+001) (21, -1.28101456165313720000e+000) (0, 3.79889321327209470000e+000) (1, -2.31684780120849610000e+000) (2, -1.00897073745727540000e+000) (3, -4.60151100158691410000e+000) (4, -3.17698764801025390000e+000) (5, -6.30737018585205080000e+000) (6, -7.15009307861328120000e+000) (7, -6.45446729660034180000e+000) (8, -1.50000000000000000000e+003) (9, -4.67777967453002930000e+000) (10, -1.67025625705718990000e+000) (11, -3.99313330650329590000e+000) (12, 1.41445100307464600000e+000) (13, 6.54318094253540040000e+000) (14, 2.89694857597351070000e+000) (15, 2.31259137392044070000e-001) (16, -4.06183004379272460000e+000) (17, -6.47497224807739260000e+000) (18, -3.76767396926879880000e+000) (19, -5.42516899108886720000e+000) (20, 1.40917720794677730000e+001) (21, -2.45711231231689450000e+000) (0, 8.27701985836029050000e-002) (1, -2.34933590888977050000e+000) (2, -3.36176574230194090000e-001) (3, 5.51464157104492190000e+001) (4, 7.11109542846679690000e+000) (5, 1.87551522254943850000e+000) (6, 3.19612360000610350000e+000) (7, 1.72111535072326660000e+000) (8, 9.11254048347473140000e-001) (9, 3.55522304773330690000e-001) (10, -1.02907037734985350000e+000) (11, 2.02553525567054750000e-001) (12, -2.19374939799308780000e-001) (13, -2.57018506526947020000e-001) (14, -2.61563706398010250000e+000) (15, 4.53288257122039790000e-001) (16, -1.78888940811157230000e+000) (17, -2.90941715240478520000e-001) (18, -8.79624307155609130000e-001) (19, 1.04650604724884030000e+000) (20, -2.99893045425415040000e+000) (21, -1.68170213699340820000e+000) (0, 1.82273316383361820000e+000) (1, -1.08906555175781250000e+000) (2, 1.69100558757781980000e+000) (3, -5.54011726379394530000e+000) (4, 1.04942865371704100000e+001) (5, -1.17210216522216800000e+001) (6, -1.67749583721160890000e+000) (7, -1.16187629699707030000e+001) (8, -8.90090048313140870000e-001) (9, -3.57732959091663360000e-002) (10, -3.34695518016815190000e-001) (11, -4.99024987220764160000e-002) (12, 5.61979413032531740000e-001) (13, -2.30448901653289790000e-001) (14, 1.25128674507141110000e+000) (15, -9.66517150402069090000e-001) (16, -6.45730733871459960000e-001) (17, -7.38789558410644530000e-001) (18, -2.15034604072570800000e-001) (19, -5.79017817974090580000e-001) (20, -2.09034824371337890000e+000) (21, -4.95838832855224610000e+000) (0, -4.00360822677612300000e+000) (1, -8.40217232704162600000e-001) (2, -1.98697948455810550000e+000) (3, -2.04142045974731450000e+000) (4, 1.52860009670257570000e+000) (5, 1.09143933105468750000e+003) (6, -7.41808748245239260000e+000) (7, 1.09156445312500000000e+003) (8, -1.50000000000000000000e+003) (9, -3.75360399484634400000e-001) (10, -3.80201578140258790000e+000) (11, 2.65943551063537600000e+000) (12, -1.24908924102783200000e+000) (13, -3.37785005569458010000e+000) (14, -1.49775024414062500000e+003) (15, -8.77621352672576900000e-001) (16, -1.30548405647277830000e+000) (17, 4.68233299255371090000e+000) (18, 7.80698001384735110000e-001) (19, -1.49999987792968750000e+003) (20, 3.28536319732666020000e+000) (21, -6.90186738967895510000e-001) (0, 1.32042515277862550000e+000) (1, -1.57457864284515380000e+000) (2, 1.16595516204833980000e+001) (3, -5.22356390953063960000e-001) (4, -1.48520917892456050000e+001) (5, 3.17729520797729490000e+000) (6, -5.16318917274475100000e-001) (7, 3.20824599266052250000e+000) (8, -9.74411308765411380000e-001) (9, -2.07161283493041990000e+000) (10, -2.17892490327358250000e-002) (11, -6.76375508308410640000e-001) (12, 3.32804656028747560000e+000) (13, 1.72984981536865230000e+000) (14, 3.01840066909790040000e-001) (15, -9.18314695358276370000e-001) (16, -6.88417136669158940000e-001) (17, 3.42436045408248900000e-001) (18, -7.74862825870513920000e-001) (19, -1.38203501701354980000e-001) (20, -7.84204292297363280000e+000) (21, -3.92235398292541500000e-001) (0, -1.10615611076354980000e+000) (1, -3.11744213104248050000e-001) (2, -8.66831958293914790000e-001) (3, -1.97895288467407230000e+000) (4, 9.53215286135673520000e-002) (5, 2.98223733901977540000e+000) (6, -1.99269402027130130000e+000) (7, 2.84288763999938960000e+000) (8, -1.15217693150043490000e-001) (9, -3.08253556489944460000e-001) (10, -3.66029813885688780000e-002) (11, 5.56949198246002200000e-001) (12, -1.47034689784049990000e-001) (13, 7.60740160942077640000e-001) (14, -2.81011843681335450000e+000) (15, 8.96919310092926030000e-001) (16, 2.64867234230041500000e+000) (17, 1.28995788097381590000e+000) (18, -9.25010815262794490000e-002) (19, 2.44955733418464660000e-001) (20, -1.39233660697937010000e+000) (21, -1.32767736911773680000e-001) (0, 2.24193954467773440000e+001) (1, 2.50480830669403080000e-001) (2, -4.59196448326110840000e-001) (3, -1.21135020256042480000e+000) (4, -3.53952336311340330000e+000) (5, -3.35125160217285160000e+000) (6, -1.10298891067504880000e+001) (7, -3.41958427429199220000e+000) (8, -5.54807281494140620000e+000) (9, 4.96354293823242190000e+000) (10, -1.56765460968017580000e+000) (11, -3.31897735595703130000e-001) (12, 2.88634037971496580000e+000) (13, -7.27090787887573240000e+000) (14, -1.16324911117553710000e+001) (15, 3.21825718879699710000e+000) (16, -3.47854924201965330000e+000) (17, 2.17338299751281740000e+000) (18, 1.08771026134490970000e+000) (19, -5.17479740083217620000e-002) (20, -4.84917908906936650000e-001) (21, 1.10937631130218510000e+000) (0, 2.82182574272155760000e+000) (1, -1.19039750099182130000e+000) (2, 2.98558282852172850000e+000) (3, 2.46419787406921390000e+000) (4, -8.19345951080322270000e+000) (5, 2.32174644470214840000e+001) (6, 2.71164369583129880000e+000) (7, 2.33087291717529300000e+001) (8, -2.74332828521728520000e+001) (9, -1.60599684715271000000e+000) (10, 1.23071670532226560000e+000) (11, -6.22736310958862300000e+000) (12, 4.91509824991226200000e-001) (13, 7.57800489664077760000e-002) (14, 1.95118694305419920000e+001) (15, 1.11161603927612300000e+001) (16, -3.23821306228637700000e-001) (17, -1.64368498325347900000e+000) (18, -1.14456385374069210000e-001) (19, -2.30523633956909180000e+000) (20, 3.98694181442260740000e+000) (21, 4.26647961139678960000e-001) (22, -7.63455405831336980000e-002) (23, 1.06153464317321780000e+000) (24, -1.92753389477729800000e-001) (25, -3.20717602968215940000e-001) (26, 6.41899406909942630000e-001) (27, -3.90974998474121090000e-001) (28, -3.79946678876876830000e-001) (29, 3.80777448415756230000e-001) (30, 1.90563440322875980000e-001) (31, 7.15087473392486570000e-001) (32, 2.39893123507499690000e-001) (33, -3.59446734189987180000e-001) (34, -8.26967597007751460000e-001) (35, -5.48833310604095460000e-001) (36, 5.07269620895385740000e-001) (37, -1.44178465008735660000e-001) (38, -2.12259113788604740000e-001) (39, -2.10350751876831050000e-001) (40, 3.75547438859939580000e-001) (41, -7.41816282272338870000e-001) (42, -3.11980307102203370000e-001) (43, 3.41755568981170650000e-001) (44, 4.12394583225250240000e-001) (45, -4.64010208845138550000e-001) (46, -3.36749553680419920000e-001) (47, -2.61868834495544430000e-001) (48, -4.43845033645629880000e-001) (49, 7.30923354625701900000e-001) (50, 2.91650205850601200000e-001) (51, 5.02263903617858890000e-001) (52, -6.67725980281829830000e-001) (53, -1.92189365625381470000e-001) (54, -1.43282741308212280000e-001) (55, 7.23252713680267330000e-001) (56, 3.15007686614990230000e-001) (57, 1.62742757797241210000e+000) (58, 7.62510895729064940000e-001) (59, -9.09255087375640870000e-001) (60, 1.98931765556335450000e+000) (61, -2.40701809525489810000e-001) (62, 6.45222306251525880000e-001) (63, -2.32719793915748600000e-001) (64, -1.69838920235633850000e-001) (65, 1.42958939075469970000e-001) 
