FANN_FLO_2.1
num_layers=3
learning_rate=0.700000
connection_rate=1.000000
network_type=0
learning_momentum=0.000000
training_algorithm=2
train_error_function=1
train_stop_function=0
cascade_output_change_fraction=0.010000
quickprop_decay=-0.000100
quickprop_mu=1.750000
rprop_increase_factor=1.200000
rprop_decrease_factor=0.500000
rprop_delta_min=0.000000
rprop_delta_max=50.000000
rprop_delta_zero=0.100000
cascade_output_stagnation_epochs=12
cascade_candidate_change_fraction=0.010000
cascade_candidate_stagnation_epochs=12
cascade_max_out_epochs=150
cascade_max_cand_epochs=150
cascade_num_candidate_groups=2
bit_fail_limit=3.49999994039535520000e-001
cascade_candidate_limit=1.00000000000000000000e+003
cascade_weight_multiplier=4.00000005960464480000e-001
cascade_activation_functions_count=10
cascade_activation_functions=3 5 7 8 10 11 14 15 16 17 
cascade_activation_steepnesses_count=4
cascade_activation_steepnesses=2.50000000000000000000e-001 5.00000000000000000000e-001 7.50000000000000000000e-001 1.00000000000000000000e+000 
layer_sizes=22 31 2 
scale_included=0
neurons (num_inputs, activation_function, activation_steepness)=(0, 0, 0.00000000000000000000e+000) (0, 0, 0.00000000000000000000e+000) (0, 0, 0.00000000000000000000e+000) (0, 0, 0.00000000000000000000e+000) (0, 0, 0.00000000000000000000e+000) (0, 0, 0.00000000000000000000e+000) (0, 0, 0.00000000000000000000e+000) (0, 0, 0.00000000000000000000e+000) (0, 0, 0.00000000000000000000e+000) (0, 0, 0.00000000000000000000e+000) (0, 0, 0.00000000000000000000e+000) (0, 0, 0.00000000000000000000e+000) (0, 0, 0.00000000000000000000e+000) (0, 0, 0.00000000000000000000e+000) (0, 0, 0.00000000000000000000e+000) (0, 0, 0.00000000000000000000e+000) (0, 0, 0.00000000000000000000e+000) (0, 0, 0.00000000000000000000e+000) (0, 0, 0.00000000000000000000e+000) (0, 0, 0.00000000000000000000e+000) (0, 0, 0.00000000000000000000e+000) (0, 0, 0.00000000000000000000e+000) (22, 3, 5.00000000000000000000e-001) (22, 3, 5.00000000000000000000e-001) (22, 3, 5.00000000000000000000e-001) (22, 3, 5.00000000000000000000e-001) (22, 3, 5.00000000000000000000e-001) (22, 3, 5.00000000000000000000e-001) (22, 3, 5.00000000000000000000e-001) (22, 3, 5.00000000000000000000e-001) (22, 3, 5.00000000000000000000e-001) (22, 3, 5.00000000000000000000e-001) (22, 3, 5.00000000000000000000e-001) (22, 3, 5.00000000000000000000e-001) (22, 3, 5.00000000000000000000e-001) (22, 3, 5.00000000000000000000e-001) (22, 3, 5.00000000000000000000e-001) (22, 3, 5.00000000000000000000e-001) (22, 3, 5.00000000000000000000e-001) (22, 3, 5.00000000000000000000e-001) (22, 3, 5.00000000000000000000e-001) (22, 3, 5.00000000000000000000e-001) (22, 3, 5.00000000000000000000e-001) (22, 3, 5.00000000000000000000e-001) (22, 3, 5.00000000000000000000e-001) (22, 3, 5.00000000000000000000e-001) (22, 3, 5.00000000000000000000e-001) (22, 3, 5.00000000000000000000e-001) (22, 3, 5.00000000000000000000e-001) (22, 3, 5.00000000000000000000e-001) (22, 3, 5.00000000000000000000e-001) (22, 3, 5.00000000000000000000e-001) (0, 3, 0.00000000000000000000e+000) (31, 3, 5.00000000000000000000e-001) (0, 3, 0.00000000000000000000e+000) 
connections (connected_to_neuron, weight)=(0, 6.09456348419189450000e+000) (1, 2.52583909034729000000e+000) (2, 1.85972666740417480000e+000) (3, 3.30205440521240230000e+000) (4, 1.81783986091613770000e+000) (5, -1.69464766979217530000e+000) (6, -2.08580538630485530000e-001) (7, -1.60302162170410160000e+000) (8, 1.46457662582397460000e+001) (9, -2.90348553657531740000e+000) (10, -1.10245156288146970000e+000) (11, 4.63116168975830080000e+000) (12, 5.27210330963134770000e+000) (13, -7.60105133056640630000e+000) (14, 3.82167267799377440000e+000) (15, 9.14530849456787110000e+000) (16, -9.92833423614501950000e+000) (17, -2.09560680389404300000e+000) (18, 1.35631453990936280000e+000) (19, 6.07175171375274660000e-001) (20, 1.98003654479980470000e+001) (21, 5.76983988285064700000e-001) (0, 3.82516473531723020000e-001) (1, -4.90473777055740360000e-001) (2, -6.80183219909667970000e+000) (3, 5.25301284790039060000e+001) (4, 2.43420267105102540000e+000) (5, -1.28048682212829590000e+000) (6, -3.59252977371215820000e+000) (7, -1.30461430549621580000e+000) (8, -2.63647007942199710000e+000) (9, 1.60033047199249270000e+000) (10, -4.40559434890747070000e+000) (11, 3.54919338226318360000e+000) (12, 1.99054086208343510000e+000) (13, -1.99425995349884030000e+000) (14, 2.64170837402343750000e+000) (15, -2.32441854476928710000e+000) (16, 6.79547339677810670000e-002) (17, 7.32409119606018070000e-001) (18, -2.86454582214355470000e+000) (19, -1.91158044338226320000e+000) (20, 1.93894624710083010000e+000) (21, 5.70079684257507320000e-001) (0, -3.42696875333786010000e-001) (1, 4.52233266830444340000e+000) (2, -1.39611318707466130000e-001) (3, 2.52572035789489750000e+000) (4, 8.54117202758789060000e+000) (5, -5.51083087921142580000e+000) (6, -1.49034693837165830000e-001) (7, -5.36869192123413090000e+000) (8, -2.87698578834533690000e+000) (9, 5.50790548324584960000e+000) (10, -8.32195639610290530000e-001) (11, -1.24448466300964360000e+000) (12, 5.68893969058990480000e-001) (13, 7.99823474884033200000e+000) (14, 5.57123303413391110000e-001) (15, 4.34185886383056640000e+000) (16, -3.27206492424011230000e-001) (17, 1.92704219818115230000e+001) (18, -1.07573127746582030000e+001) (19, -7.67050838470458980000e+000) (20, 2.54276103973388670000e+001) (21, 5.92436552047729490000e-001) (0, -5.09224761962890620000e+002) (1, -1.82867333292961120000e-001) (2, 2.69612932205200200000e+000) (3, -9.95325803756713870000e-001) (4, -4.88759607076644900000e-001) (5, -5.72639656066894530000e+001) (6, 1.94900436401367190000e+001) (7, -5.72861251831054690000e+001) (8, -4.88646209716796870000e+002) (9, -3.60256225585937500000e+002) (10, -6.15797638893127440000e-001) (11, 7.99338722229003910000e+000) (12, -6.22187793254852290000e-001) (13, -1.56868413090705870000e-001) (14, -2.15769857168197630000e-001) (15, -1.50000000000000000000e+003) (16, -1.50000000000000000000e+003) (17, -1.97670793533325200000e+000) (18, -1.50000000000000000000e+003) (19, -2.66985058784484860000e+000) (20, -1.23691650390625000000e+003) (21, -6.11936859786510470000e-002) (0, 5.70693433284759520000e-001) (1, 1.20293974876403810000e+000) (2, 1.04198658466339110000e+000) (3, 1.37934112548828130000e+000) (4, -6.23987555503845210000e-001) (5, -2.64122724533081050000e+000) (6, -5.37145495414733890000e-001) (7, -2.61943769454956050000e+000) (8, 2.25709572434425350000e-001) (9, 7.56867408752441410000e-001) (10, -1.12495317459106450000e+001) (11, 2.58662033081054690000e+000) (12, -2.22284865379333500000e+000) (13, 1.40202343463897710000e-002) (14, 8.18847000598907470000e-001) (15, 6.23174934387207030000e+001) (16, -5.81770353019237520000e-002) (17, 6.22087776660919190000e-001) (18, 1.94045805931091310000e+000) (19, 1.21622049808502200000e+000) (20, 2.79356980323791500000e+000) (21, 5.82487344741821290000e-001) (0, 2.88419938087463380000e+000) (1, 2.23396444320678710000e+000) (2, 5.41529893875122070000e+000) (3, 1.26809883117675780000e+000) (4, 2.41023182868957520000e+000) (5, -8.25389671325683590000e+000) (6, -1.10335147380828860000e+000) (7, -8.37151145935058590000e+000) (8, -1.52779114246368410000e+000) (9, 2.32184648513793950000e+000) (10, 3.31205070018768310000e-001) (11, -5.55436968803405760000e-001) (12, -5.03609836101531980000e-001) (13, -1.80753862857818600000e+000) (14, 1.35110497474670410000e+000) (15, -9.29605245590209960000e-001) (16, -2.56297516822814940000e+000) (17, -9.82125949859619140000e+000) (18, 7.18346357345581050000e+000) (19, 3.18585014343261720000e+001) (20, 2.09442443847656250000e+001) (21, 5.20566642284393310000e-001) (0, -4.58092272281646730000e-001) (1, -1.18802990764379500000e-002) (2, 5.86040496826171880000e-001) (3, -7.25330293178558350000e-001) (4, -5.93855500221252440000e-001) (5, -5.52619018554687500000e+002) (6, 3.05823612213134770000e+000) (7, -5.52602478027343750000e+002) (8, 3.07092547416687010000e-001) (9, -1.66026134490966800000e+001) (10, -2.19524574279785160000e+000) (11, 8.45889568328857420000e+000) (12, -1.50000000000000000000e+003) (13, -1.60771713256835940000e+001) (14, -1.47354087829589840000e+001) (15, -3.84241908788681030000e-001) (16, -8.85719284415245060000e-002) (17, -2.36967653036117550000e-001) (18, 1.89533922821283340000e-002) (19, 8.48834872245788570000e-001) (20, 1.08775842189788820000e+000) (21, 2.42790505290031430000e-002) (0, -8.21352124214172360000e-001) (1, -1.77291655540466310000e+000) (2, -3.74713754653930660000e+000) (3, -1.77101105451583860000e-001) (4, 2.20045433044433590000e+001) (5, -5.52635742187500000000e+002) (6, 5.71834421157836910000e+000) (7, -5.52607421875000000000e+002) (8, 1.10698902606964110000e+000) (9, 9.24511626362800600000e-002) (10, -5.67015886306762700000e-001) (11, 1.18975722789764400000e+000) (12, -5.48249840736389160000e-001) (13, 1.05209875106811520000e+000) (14, 6.35644817352294920000e+000) (15, -1.40817046165466310000e+000) (16, -3.65377092361450200000e+000) (17, -4.73417222499847410000e-001) (18, -1.48991274833679200000e+000) (19, 1.90008246898651120000e+000) (20, -1.23691650390625000000e+003) (21, -6.21870517730712890000e-001) (0, -1.50000000000000000000e+003) (1, -8.67100656032562260000e-001) (2, -1.30110073089599610000e+000) (3, -3.34358835220336910000e+000) (4, 2.49068975448608400000e+000) (5, -5.70904016494750980000e+000) (6, 2.91540050506591800000e+000) (7, -5.74674749374389650000e+000) (8, 6.14342749118804930000e-001) (9, -1.44940991210937500000e+003) (10, -3.01332175731658940000e-001) (11, 2.91926443576812740000e-001) (12, -7.37491683959960940000e+001) (13, 1.23530626296997070000e+000) (14, 4.58223998546600340000e-001) (15, -1.50000000000000000000e+003) (16, -1.50000000000000000000e+003) (17, -2.79321685791015620000e+002) (18, -1.50000000000000000000e+003) (19, -1.10754661560058590000e+002) (20, -1.23691650390625000000e+003) (21, -1.26584827899932860000e-001) (0, 4.92163991928100590000e+000) (1, -1.29932260513305660000e+000) (2, -4.33963239192962650000e-002) (3, -3.03573966026306150000e+000) (4, 3.56477355957031250000e+000) (5, -5.52630004882812500000e+002) (6, 2.92440395355224610000e+001) (7, -5.52573974609375000000e+002) (8, -2.83234715461730960000e+000) (9, 2.93131113052368160000e-001) (10, -1.02962577342987060000e+000) (11, 2.64727187156677250000e+000) (12, -1.50218278169631960000e-001) (13, -1.07587456703186040000e+000) (14, -7.95991325378417970000e+000) (15, -1.50000000000000000000e+003) (16, -1.61966860294342040000e-001) (17, 1.16820077896118160000e+001) (18, -3.09331965446472170000e+000) (19, 8.14256477355957030000e+000) (20, 6.07951211929321290000e+000) (21, 9.75552666932344440000e-003) (0, -4.90301780700683590000e+001) (1, -2.46699806302785870000e-002) (2, 4.28159284591674800000e+000) (3, 4.09068822860717770000e+000) (4, 2.21027779579162600000e+000) (5, 6.59218072891235350000e-001) (6, 3.87349081039428710000e+000) (7, 6.42488360404968260000e-001) (8, -1.17985177040100100000e+000) (9, 2.78078579902648930000e+000) (10, -3.26849445700645450000e-002) (11, -7.00355231761932370000e-001) (12, -6.57298509031534190000e-003) (13, 7.90074408054351810000e-001) (14, -1.54970753192901610000e+000) (15, -2.07448267936706540000e+000) (16, -3.65612804889678960000e-001) (17, -3.56089949607849120000e-001) (18, -5.82591891288757320000e-002) (19, -1.48536014556884770000e+000) (20, -4.72688436508178710000e+000) (21, -6.94015175104141240000e-002) (0, 3.13126116991043090000e-001) (1, 4.93955898284912110000e+000) (2, 3.92100381851196290000e+000) (3, 1.02781438827514650000e+000) (4, -1.33291940689086910000e+001) (5, -6.77670526504516600000e+000) (6, 7.80319213867187500000e+000) (7, -6.81729364395141600000e+000) (8, 3.49549889564514160000e+000) (9, 3.54765605926513670000e+000) (10, 1.46497571468353270000e+000) (11, 3.32927495241165160000e-001) (12, -2.19400143623352050000e+000) (13, -6.27331793308258060000e-001) (14, 9.30844470858573910000e-002) (15, 3.84808212518692020000e-001) (16, 1.53260254859924320000e+000) (17, 9.97004881501197810000e-002) (18, 8.70238423347473140000e-001) (19, 9.88810718059539790000e-001) (20, -5.66571855545043950000e+000) (21, 1.17930459976196290000e+000) (0, 3.12435126304626460000e+000) (1, -7.89083316922187810000e-002) (2, -1.28259534835815430000e+001) (3, -2.05542230606079100000e+000) (4, 2.55705571174621580000e+000) (5, -5.52742065429687500000e+002) (6, 1.01858589172363280000e+002) (7, -5.52546630859375000000e+002) (8, 3.99969768524169920000e+000) (9, 5.93096446990966800000e+000) (10, -1.00092113018035890000e+000) (11, -5.87438583374023440000e-001) (12, 3.23134255409240720000e+000) (13, 6.20787739753723140000e-001) (14, -2.46602177619934080000e+000) (15, -4.83822097778320310000e+001) (16, -4.34012226760387420000e-002) (17, -8.94934460520744320000e-002) (18, -5.94292306900024410000e+000) (19, 1.04652678966522220000e+000) (20, 1.83083095550537110000e+001) (21, -3.67566533386707310000e-002) (0, 1.39064419269561770000e+000) (1, 1.81853592395782470000e+000) (2, 2.74464869499206540000e+000) (3, -1.67133569717407230000e+000) (4, 2.32746982574462890000e+000) (5, -5.52713684082031250000e+002) (6, 3.42306569218635560000e-002) (7, -5.52634643554687500000e+002) (8, -1.17029223632812500000e+003) (9, 5.25389432907104490000e-001) (10, -1.24915027618408200000e+000) (11, 2.09513592720031740000e+000) (12, -1.74574780464172360000e+000) (13, 4.16699051856994630000e-001) (14, 1.13857495784759520000e+000) (15, 1.54340124130249020000e+000) (16, -2.89769880473613740000e-002) (17, 1.45612692832946780000e+000) (18, -2.72502384185791020000e+001) (19, 2.00985565185546880000e+001) (20, -1.23691650390625000000e+003) (21, -7.22240954637527470000e-002) (0, 9.00586009025573730000e-001) (1, 2.00855088233947750000e+000) (2, -3.45866799354553220000e-001) (3, 3.40622496604919430000e+000) (4, 3.68789052963256840000e+000) (5, -1.04748964309692380000e+001) (6, -8.22214961051940920000e-001) (7, -1.03489332199096680000e+001) (8, 2.28334102630615230000e+001) (9, 6.91959559917449950000e-001) (10, 1.79403209686279300000e+000) (11, -1.31743564605712890000e+001) (12, 5.46293146908283230000e-002) (13, 1.52400803565979000000e+000) (14, -1.70940328389406200000e-002) (15, -3.85749769210815430000e+000) (16, -1.37305831909179690000e+000) (17, -8.08822441101074220000e+000) (18, 8.98012733459472660000e+000) (19, 6.80158138275146480000e+000) (20, 1.09449596405029300000e+001) (21, 6.79376244544982910000e-001) (0, 3.22205805778503420000e+000) (1, 1.30581188201904300000e+001) (2, 4.90031337738037110000e+000) (3, 1.83350348472595210000e+000) (4, 1.45477895736694340000e+001) (5, -7.23951864242553710000e+000) (6, -1.32102704048156740000e+000) (7, -7.05431842803955080000e+000) (8, 1.08867082595825200000e+001) (9, 4.45469170808792110000e-001) (10, -2.84904670715332030000e+000) (11, -1.01041877269744870000e+000) (12, 3.73938143253326420000e-001) (13, -1.25478005409240720000e+000) (14, 1.94374263286590580000e+000) (15, -6.89829587936401370000e-001) (16, -2.10918331146240230000e+000) (17, -2.82218885421752930000e+000) (18, -2.56548571586608890000e+000) (19, 2.03110933303833010000e+000) (20, 6.74603581428527830000e-001) (21, 5.98791360855102540000e-001) (0, -1.91729271411895750000e+000) (1, 6.05392169952392580000e+000) (2, 5.53727340698242190000e+000) (3, 8.57229518890380860000e+000) (4, -1.30073142051696780000e+000) (5, -8.04182434082031250000e+000) (6, -2.71898961067199710000e+000) (7, -8.04360675811767580000e+000) (8, 3.21100503206253050000e-001) (9, -4.52431403100490570000e-002) (10, -1.25475025177001950000e+000) (11, -1.56319662928581240000e-001) (12, -2.61104315519332890000e-001) (13, 1.15474462509155270000e+000) (14, 1.54543474316596980000e-001) (15, 6.99475646018981930000e-001) (16, -4.82008028030395510000e+000) (17, -1.14372959136962890000e+001) (18, 7.79065942764282230000e+000) (19, 7.66123914718627930000e+000) (20, 4.75739364624023440000e+001) (21, 7.26400732994079590000e-001) (0, 2.03639173507690430000e+000) (1, 1.00828943252563480000e+001) (2, 3.98738908767700200000e+000) (3, 3.15294647216796870000e+000) (4, 1.58915691375732420000e+001) (5, -5.69802045822143550000e+000) (6, -1.31248581409454350000e+000) (7, -5.69597005844116210000e+000) (8, 1.34491910934448240000e+001) (9, 1.19900524616241460000e+000) (10, -4.59680175781250000000e+000) (11, 9.21699619293212890000e+000) (12, 8.01346123218536380000e-001) (13, -1.25810277462005620000e+000) (14, 1.88528728485107420000e+001) (15, 2.19755277037620540000e-001) (16, -1.14211320877075200000e+001) (17, 1.11335554122924800000e+001) (18, -4.22286748886108400000e+000) (19, -3.82867789268493650000e+000) (20, -1.13046522140502930000e+001) (21, 4.95660901069641110000e-001) (0, -7.97816574573516850000e-001) (1, 1.39691799879074100000e-001) (2, 7.87774145603179930000e-001) (3, 4.43714499473571780000e-001) (4, -2.65195928514003750000e-002) (5, -3.71526184082031250000e+001) (6, 6.14537696838378910000e+001) (7, -3.71203498840332030000e+001) (8, 1.68275201320648190000e+000) (9, -4.38405126333236690000e-001) (10, -5.14487504959106450000e-001) (11, 5.54476320743560790000e-001) (12, -2.65510380268096920000e-001) (13, 3.81421804428100590000e-001) (14, 8.49987208843231200000e-001) (15, -3.76352478027343750000e+002) (16, -4.94107437133789060000e+001) (17, -9.24787640571594240000e-001) (18, -1.39729675292968750000e+003) (19, 7.87294030189514160000e-001) (20, 7.20116272568702700000e-002) (21, 1.46640136837959290000e-001) (0, 1.33280968666076660000e+000) (1, 1.14425396919250490000e+000) (2, 1.18929624557495120000e+001) (3, 2.43783068656921390000e+000) (4, -1.17414598464965820000e+001) (5, -5.78327894210815430000e+000) (6, -7.22631573677062990000e-001) (7, -5.86098241806030270000e+000) (8, 1.28054962158203130000e+001) (9, 1.29754471778869630000e+000) (10, 7.37563490867614750000e-001) (11, 4.75757408142089840000e+000) (12, 4.59771692752838130000e-001) (13, 3.18185281753540040000e+000) (14, -1.18835568428039550000e+000) (15, 2.86244773864746090000e+000) (16, -2.09557726979255680000e-001) (17, -2.93494939804077150000e+000) (18, 5.28059720993041990000e-001) (19, -5.67095577716827390000e-001) (20, 2.31865406036376950000e+001) (21, 8.54231119155883790000e-001) (0, -3.39217215776443480000e-001) (1, -4.07765245437622070000e+000) (2, 4.31151437759399410000e+000) (3, 9.04672622680664060000e+000) (4, -7.23330068588256840000e+000) (5, -2.94562363624572750000e+000) (6, 4.80146455764770510000e+000) (7, -3.03446054458618160000e+000) (8, 1.82131195068359380000e+001) (9, -6.35456442832946780000e-001) (10, -3.81219506263732910000e-001) (11, -5.98653364181518550000e+000) (12, -2.98272341489791870000e-001) (13, -3.39959889650344850000e-001) (14, -6.72647094726562500000e+002) (15, 9.51822578907012940000e-001) (16, -2.86326259374618530000e-001) (17, -1.50000000000000000000e+003) (18, -6.13222241401672360000e-001) (19, 2.01652669906616210000e+000) (20, -7.19848728179931640000e+000) (21, -6.72654528170824050000e-003) (0, -7.96367585659027100000e-001) (1, 3.74781179428100590000e+000) (2, 1.15406894683837890000e+000) (3, 2.53321409225463870000e+000) (4, 1.87168824672698970000e+000) (5, -1.04612979888916020000e+001) (6, -2.10478723049163820000e-001) (7, -1.03988704681396480000e+001) (8, 1.03276929855346680000e+001) (9, 2.84094524383544920000e+000) (10, -2.58877754211425780000e+000) (11, 1.75827935338020320000e-001) (12, 9.03075695037841800000e-001) (13, 1.97525620460510250000e+000) (14, -1.09413497149944310000e-001) (15, -1.76666793823242190000e+001) (16, -9.91248369216918950000e-001) (17, -2.49640297889709470000e+000) (18, 1.14778871536254880000e+001) (19, 1.37818717956542970000e+000) (20, 6.80707397460937500000e+001) (21, 9.38461959362030030000e-001) (0, -4.52448511123657230000e+000) (1, -8.55944901704788210000e-002) (2, 2.03917098045349120000e+000) (3, 6.69376458972692490000e-003) (4, 2.41272616386413570000e+000) (5, -5.52680725097656250000e+002) (6, 1.99400508403778080000e+000) (7, -5.52718017578125000000e+002) (8, -1.65145301818847660000e+001) (9, 5.29933595657348630000e+000) (10, -5.76368629932403560000e-001) (11, -1.82118207216262820000e-001) (12, -1.82312324643135070000e-001) (13, -9.11070942878723140000e-001) (14, 4.15838317871093750000e+001) (15, -1.31157234311103820000e-001) (16, -1.25142976641654970000e-001) (17, -2.46575808525085450000e+000) (18, -1.44956135749816890000e+000) (19, 2.05274239182472230000e-001) (20, -1.23691650390625000000e+003) (21, -5.17708659172058110000e-002) (0, -1.31460416316986080000e+000) (1, 2.88429164886474610000e+000) (2, 3.12118482589721680000e+000) (3, 1.02610826492309570000e+000) (4, -1.16158294677734380000e+001) (5, -1.40652408599853520000e+001) (6, 9.50430107116699220000e+000) (7, -1.40566225051879880000e+001) (8, 3.63980817794799800000e+000) (9, -5.82313477993011470000e-001) (10, 4.08008527755737300000e+000) (11, 5.70004761219024660000e-001) (12, 1.03497266769409180000e+000) (13, -1.25064826011657710000e+000) (14, -2.63334542512893680000e-001) (15, 1.94942757487297060000e-001) (16, -2.25922048091888430000e-001) (17, 1.10435038805007930000e-002) (18, 7.21302032470703130000e-001) (19, 2.69562983512878420000e+000) (20, -7.07024669647216800000e+000) (21, 9.11467730998992920000e-001) (0, -1.06278985738754270000e-001) (1, 1.83302145451307300000e-002) (2, -9.23557057976722720000e-002) (3, 5.81823766231536870000e-001) (4, -1.12389202117919920000e+001) (5, -5.52716674804687500000e+002) (6, 1.90571151733398440000e+002) (7, -5.52709716796875000000e+002) (8, -1.95318126678466800000e+001) (9, -1.50000000000000000000e+003) (10, -4.97736513614654540000e-001) (11, -1.13047933578491210000e+001) (12, -3.46646636724472050000e-001) (13, 8.47887802124023440000e+000) (14, -3.99130493164062500000e+002) (15, 8.77283096313476560000e+000) (16, -1.31847992539405820000e-001) (17, -1.30276787281036380000e+000) (18, -1.21719634532928470000e+000) (19, 4.71710815429687500000e+001) (20, -1.23691650390625000000e+003) (21, -2.07546702586114410000e-003) (0, 1.71449279785156250000e+000) (1, -6.11355295404791830000e-003) (2, -2.44255018234252930000e+000) (3, -1.61991894245147710000e-001) (4, -6.54212176799774170000e-001) (5, -5.52701049804687500000e+002) (6, 4.30372089147567750000e-001) (7, -5.52697753906250000000e+002) (8, -1.17231286621093750000e+003) (9, 2.98444658517837520000e-001) (10, -1.26521348953247070000e+000) (11, -4.63572382926940920000e-001) (12, 4.16795134544372560000e-001) (13, 6.55739679932594300000e-002) (14, 4.16119813919067380000e+000) (15, -4.18575286865234370000e+000) (16, -6.62110075354576110000e-002) (17, 8.60713100433349610000e+000) (18, -3.40421524047851560000e+001) (19, 1.59275655746459960000e+001) (20, -1.23691650390625000000e+003) (21, 3.82785014808177950000e-002) (0, 7.70749032497406010000e-001) (1, 4.24478024244308470000e-001) (2, 2.08093857765197750000e+000) (3, -8.89315032958984370000e+000) (4, -8.69935485839843750000e+002) (5, -1.81384372711181640000e+001) (6, 2.10335979461669920000e+001) (7, -1.81190586090087890000e+001) (8, 2.90484046936035160000e+000) (9, 2.95267105102539060000e+000) (10, -3.95016610622406010000e-001) (11, 1.00574088096618650000e+000) (12, -1.45348048210144040000e+000) (13, 6.82162380218505860000e+000) (14, 4.31720286607742310000e-001) (15, -1.04098796844482420000e+000) (16, -6.55727386474609380000e-001) (17, -3.30418348312377930000e-001) (18, 1.15799295902252200000e+000) (19, 3.79463613033294680000e-001) (20, -1.53665280342102050000e+000) (21, 5.28677590191364290000e-002) (0, -4.91775846481323240000e+000) (1, -2.36208066344261170000e-001) (2, 1.01531801223754880000e+001) (3, 3.42724061012268070000e+000) (4, -5.26794052124023440000e+000) (5, -2.65355777740478520000e+000) (6, 1.63836121559143070000e+000) (7, -2.53145074844360350000e+000) (8, -4.83594208955764770000e-001) (9, -2.31771230697631840000e+000) (10, -3.26523274183273320000e-001) (11, -8.23232460021972660000e+000) (12, -3.13856333494186400000e-001) (13, -1.12034261226654050000e-001) (14, -3.96787719726562500000e+002) (15, 4.35044574737548830000e+000) (16, -5.39764046669006350000e-001) (17, -3.42500228881835940000e+001) (18, -1.27274167537689210000e+000) (19, 9.93983864784240720000e-001) (20, -3.45210456848144530000e+000) (21, -9.45271626114845280000e-002) (0, 1.17712366580963130000e+000) (1, -7.26127719879150390000e+000) (2, 6.28510046005249020000e+000) (3, -1.51211273670196530000e+000) (4, 1.14613819122314450000e+000) (5, -1.34124191284179690000e+002) (6, 1.53303497314453120000e+002) (7, -1.34164825439453120000e+002) (8, -7.60815203189849850000e-001) (9, 6.39828979969024660000e-001) (10, -6.56991422176361080000e-001) (11, 3.75487506389617920000e-001) (12, -1.11331395804882050000e-001) (13, 1.53040146827697750000e+000) (14, 2.01271286010742190000e+001) (15, -1.03880298137664790000e+000) (16, -1.12828612327575680000e+000) (17, -1.41005051136016850000e+000) (18, -1.47204923629760740000e+000) (19, -2.88276314735412600000e+000) (20, -1.23691650390625000000e+003) (21, -1.65722638368606570000e-001) (0, -3.21211099624633790000e-001) (1, -5.81583417952060700000e-002) (2, -5.36509857177734380000e+001) (3, 1.09683597087860110000e+000) (4, 3.20263803005218510000e-001) (5, -2.63109683990478520000e+000) (6, 1.29314160346984860000e+000) (7, -2.63904976844787600000e+000) (8, -6.75279945135116580000e-002) (9, -2.12081584930419920000e+001) (10, 1.69038259983062740000e+000) (11, -1.33078753948211670000e+000) (12, -2.31730550527572630000e-001) (13, 1.96580290794372560000e+000) (14, -9.96234252929687500000e+002) (15, 4.33621346950531010000e-001) (16, -1.12935006618499760000e+000) (17, -5.28470635414123540000e-001) (18, -1.16780638694763180000e+000) (19, 2.59776663780212400000e+000) (20, 5.05620908737182620000e+000) (21, -1.68228019028902050000e-002) (22, -1.51822865009307860000e-001) (23, -3.00136029720306400000e-001) (24, -2.66596108675003050000e-001) (25, -9.51816711425781250000e+001) (26, -2.98144817352294920000e-001) (27, -2.02226355671882630000e-001) (28, -9.82713937759399410000e-001) (29, -1.28197625279426570000e-001) (30, -1.50000000000000000000e+003) (31, -5.57826995849609380000e-001) (32, -2.83415138721466060000e-001) (33, -1.02255813777446750000e-001) (34, -2.77929067611694340000e-001) (35, -1.65251582860946660000e-001) (36, -9.62258800864219670000e-002) (37, -1.22490994632244110000e-001) (38, -1.45260930061340330000e-001) (39, -7.24834650754928590000e-002) (40, -4.45621442794799800000e+000) (41, -1.32378101348876950000e-001) (42, -1.72985285520553590000e-001) (43, -2.90996193885803220000e-001) (44, -2.24827527999877930000e-002) (45, -1.49167522788047790000e-001) (46, -2.30192631483078000000e-001) (47, -1.28853335976600650000e-001) (48, -4.59691315889358520000e-001) (49, -2.24596664309501650000e-001) (50, -4.16000247001647950000e-001) (51, -3.58622938394546510000e-001) (52, 1.92509517073631290000e-001) 
